-2.232053642642334301e-02,-6.344602690087128294e-02,-9.689146028581720194e-02,-1.247136118533296451e-01,-1.551490155142688510e-01,-1.779699686782171553e-01,-2.011945423801800858e-01,-2.230140792621873036e-01,-2.436468119886864570e-01,-2.627536232647044723e-01,-2.800748093407380845e-01,-2.981799148775167718e-01,-3.134501292280083007e-01,-3.264711176745741517e-01,-3.390810246972342235e-01,-3.499339026185653845e-01,-3.595826338784625098e-01,-3.682880694130484800e-01,-3.759566797614026235e-01,-3.831176547449252068e-01,-3.891385685516454696e-01,-3.955130765655415770e-01,-4.009633793327000983e-01,-4.053792925772506939e-01,-4.095338537510396781e-01,-4.136365131573573328e-01,-4.174486462318297009e-01,-4.211397684128543872e-01,-4.248309047670544847e-01,-4.283208408241831466e-01,-4.313688671948813780e-01,-4.344899356389304024e-01,-4.377880627147842096e-01,-4.409329140970693617e-01,-4.437743738269529503e-01,-4.462178709904734975e-01,-4.485174986009572984e-01,-4.507126769024222823e-01,-4.523882491294142216e-01,-4.542130313781628792e-01,-4.562248396665009031e-01,-4.577185642054987236e-01,-4.595347764600504759e-01,-4.609656886688456301e-01,-4.621659587126046853e-01,-4.633734014074215035e-01,-4.643625698750621367e-01,-4.654551133596224743e-01,-4.665432723733899945e-01,-4.674684646356392914e-01,-4.683088427457325897e-01,-4.691996107283378237e-01,-4.695843187071375713e-01,-4.700539737396987605e-01,-4.705186406969196766e-01,-4.704188174665826505e-01,-4.698413581431962194e-01,-4.689986358757632368e-01,-4.679948926770172712e-01,-4.670632994555501960e-01,-4.659311671185393799e-01,-4.641066264329136715e-01,-4.625845399123980628e-01,-4.608375228754142960e-01,-4.589010274751222362e-01,-4.570601085322430479e-01,-4.550320447490681652e-01,-4.528058112025694637e-01,-4.505453112367807100e-01,-4.479782036111527588e-01,-4.451128667451869081e-01,-4.421527907715649408e-01,-4.395227767409560227e-01,-4.366959358972371530e-01,-4.332149298080297251e-01,-4.295985605311691824e-01,-4.255563648258701148e-01,-4.213425130150149078e-01,-4.170338755774046779e-01,-4.124277422313727404e-01,-4.071863463338313838e-01,-4.018111592874801241e-01,-3.966764044931180289e-01,-3.917980706107750954e-01,-3.867777597056996086e-01,-3.815041245117072322e-01,-3.760936129740919953e-01,-3.707223454167292154e-01,-3.651245482747966786e-01,-3.595317981427514908e-01,-3.537886531453338645e-01,-3.481618893361806411e-01,-3.423471039802087890e-01,-3.360759954615185063e-01,-3.296421172489045759e-01,-3.266266338010992976e-01
-5.154498634673196356e-03,-1.817635777435506680e-02,-9.928554767856751298e-03,1.464401236434384381e-03,1.031944536283980855e-02,1.281043667829419655e-02,1.579981822698046240e-02,1.770640376695077275e-02,2.177838967876578533e-02,2.640180125340096939e-02,2.944363819163198573e-02,3.238046790368812738e-02,3.505916475452362097e-02,3.877872263626355731e-02,4.277283900323406579e-02,4.555655976779064698e-02,4.875877986492824917e-02,5.165083995546511375e-02,5.487538445573159063e-02,5.846596515989193471e-02,6.219002478145865126e-02,6.512177549808993715e-02,6.796354510244316527e-02,7.120523177777492163e-02,7.422430858798009790e-02,7.668663632112296402e-02,7.914581643797576060e-02,8.189177662364442722e-02,8.446521701254545988e-02,8.675170141333485296e-02,8.886740889236936780e-02,9.112991650614436778e-02,9.354971997691687025e-02,9.562862631934020141e-02,9.757909269427424148e-02,9.923122671019131424e-02,1.009403903124975743e-01,1.030978810586152261e-01,1.049001846508783864e-01,1.066692173265014615e-01,1.083501073886946331e-01,1.098903170257528178e-01,1.117399716808436805e-01,1.134222218966582235e-01,1.154959267152179531e-01,1.173519203306851583e-01,1.188763383916737609e-01,1.204886770682823127e-01,1.221204765356165012e-01,1.237294660482070457e-01,1.253279602528377390e-01,1.273305765379752486e-01,1.292276179785973866e-01,1.309705045849094696e-01,1.327328094633568600e-01,1.345425235272731668e-01,1.365559468664326037e-01,1.384198258146334126e-01,1.403265071623943372e-01,1.421738359486258430e-01,1.441999811392589703e-01,1.463772390227850440e-01,1.483942236688317595e-01,1.504537351485870367e-01,1.524748146719337172e-01,1.548818883023248549e-01,1.571763883132032413e-01,1.594550941675234590e-01,1.611940558210068208e-01,1.629990987387498480e-01,1.648684795695548599e-01,1.664089540311019244e-01,1.678817021846287227e-01,1.694620727342557309e-01,1.707250473335370777e-01,1.717506693970961840e-01,1.730776541298325311e-01,1.743604873580223147e-01,1.752048517494736446e-01,1.762941099342807127e-01,1.774005811480658112e-01,1.786645278381865376e-01,1.800526222636765761e-01,1.809922493719488268e-01,1.821063840086716845e-01,1.835540394253345475e-01,1.845907299978331306e-01,1.860806646628562766e-01,1.873960051021561768e-01,1.885429744247315853e-01,1.900640104787016393e-01,1.918542588153457629e-01,1.933030809919920601e-01,1.947104003129898342e-01,1.959025449944193920e-01,1.972712187564396036e-01
-9.304289630142296291e-03,-3.619317945889158339e-02,-6.624518028730934371e-02,-8.956286183959741298e-02,-1.015104282312448841e-01,-1.045793827957311323e-01,-1.085137603866915962e-01,-1.140767974755079600e-01,-1.178833249667058797e-01,-1.196982169712157290e-01,-1.156745087525596211e-01,-1.109126711970747775e-01,-1.076033365595200214e-01,-1.065893317320703165e-01,-1.050928596701043022e-01,-1.023288669312189397e-01,-9.920477589844475808e-02,-9.577523696977138790e-02,-9.205748967901612734e-02,-8.772643436484639512e-02,-8.157209004321196166e-02,-7.499150166022484909e-02,-7.107423550469359197e-02,-6.701871202629192115e-02,-6.497002650303093652e-02,-6.289675166075768542e-02,-5.916656004652441625e-02,-5.420673629919835201e-02,-4.964468968860569209e-02,-4.542581093873313686e-02,-4.105849315527998478e-02,-3.653305606127518756e-02,-3.172271300278237810e-02,-2.763890203347600313e-02,-2.514721042635165854e-02,-2.212583590448604851e-02,-1.849650675069998071e-02,-1.505535944278509064e-02,-1.095280347386939739e-02,-7.294855657898904021e-03,-3.764835018777425591e-03,-2.353967404849946043e-04,3.601751516028180080e-03,7.743613521135774176e-03,1.135803933418516598e-02,1.524400643384703560e-02,1.877270828990942192e-02,2.213457336124158639e-02,2.589307285884191734e-02,2.950660308796615797e-02,3.381601670439394330e-02,3.959938024243407628e-02,4.424493870308972981e-02,4.840411947662917602e-02,5.298002497651924797e-02,5.715816204819808288e-02,6.083610211107649823e-02,6.463619589959430922e-02,6.873130995651080544e-02,7.308772352004527795e-02,7.755081118202958312e-02,8.186193420575577084e-02,8.615584947872456656e-02,9.029110655470071189e-02,9.512503519527329421e-02,9.989419080726383293e-02,1.044401160571520187e-01,1.085526262585861934e-01,1.123916767094255142e-01,1.171463642929633925e-01,1.221665811573598576e-01,1.270590872382834635e-01,1.313840132410621364e-01,1.353283841628854511e-01,1.398891039389162649e-01,1.451122129695633367e-01,1.504835426871830584e-01,1.558206688388499850e-01,1.604544993049934754e-01,1.649293046485094671e-01,1.699741675273598318e-01,1.754512598569420156e-01,1.808554944891906935e-01,1.859060416825147888e-01,1.901973744234038144e-01,1.944437371162460182e-01,1.989295513317506647e-01,2.036367890467814801e-01,2.084725718707784725e-01,2.129894823678120108e-01,2.172903512086748479e-01,2.216490541426703598e-01,2.263989856803621525e-01,2.312425571709780248e-01,2.361979950780399018e-01,2.410201444416232575e-01
-9.305084436199885164e-03,-3.499393567483100737e-02,-6.719600658493619927e-02,-1.002979997305918913e-01,-1.355338733284762454e-01,-1.684999943665340949e-01,-1.969542492237662534e-01,-2.240022199074606368e-01,-2.495955447214725509e-01,-2.737223635768439300e-01,-2.948630225816830652e-01,-3.148778268703036898e-01,-3.338762577957183897e-01,-3.516564508842760506e-01,-3.689119801043393987e-01,-3.853057648740284002e-01,-4.008200485548115699e-01,-4.153658883754475228e-01,-4.291607976990173268e-01,-4.416808961870408723e-01,-4.536298074133140457e-01,-4.654419102544448683e-01,-4.767492686729185580e-01,-4.876499826388161485e-01,-4.977669042287102830e-01,-5.071922087016919045e-01,-5.161476633394179725e-01,-5.245024861965371654e-01,-5.321789764765182396e-01,-5.392297457695551799e-01,-5.457653732914888867e-01,-5.521938754525721471e-01,-5.584241350364678169e-01,-5.643206634063011595e-01,-5.698212788588823408e-01,-5.747420837630988766e-01,-5.798644866100978179e-01,-5.851573711943800493e-01,-5.897883280147265816e-01,-5.940747721247590096e-01,-5.981074975688257522e-01,-6.020336681484188546e-01,-6.057736249688296937e-01,-6.091982557050142910e-01,-6.126059981738074534e-01,-6.157012108071642231e-01,-6.185212812616653899e-01,-6.217464811805534231e-01,-6.251369931243307976e-01,-6.281802053631647675e-01,-6.311695423359772184e-01,-6.339716224632804265e-01,-6.365975658687690331e-01,-6.392721342814333685e-01,-6.419132076085857230e-01,-6.443851948356720261e-01,-6.469443730557793426e-01,-6.496531465804855632e-01,-6.522676091426458100e-01,-6.551298041989834786e-01,-6.581767639760998101e-01,-6.612444866821682865e-01,-6.642599531104331767e-01,-6.670212468589822308e-01,-6.693920444395489167e-01,-6.720176138041182856e-01,-6.751818627946506446e-01,-6.783654116790104327e-01,-6.815729222674885568e-01,-6.845916614188614080e-01,-6.873403574150250828e-01,-6.901218259295985868e-01,-6.930774582113062854e-01,-6.962858489573241494e-01,-6.990465555266598408e-01,-7.012086330465558959e-01,-7.032053501817913110e-01,-7.050547589374908108e-01,-7.070152089903291026e-01,-7.088512506193114238e-01,-7.106717198606115060e-01,-7.123764757974225814e-01,-7.138558896561230105e-01,-7.152179968438352464e-01,-7.165923823680060423e-01,-7.180012554365136079e-01,-7.191920911290292651e-01,-7.202344882632939482e-01,-7.214184039349355038e-01,-7.220086338891258393e-01,-7.229229259273115549e-01,-7.239030376785654530e-01,-7.251091529621512821e-01,-7.258754488754595169e-01,-7.268407833845568211e-01,-7.281240859109090469e-01
-1.979189583796674146e-02,-5.577829411550124655e-02,-7.186471650545300793e-02,-8.792633918991629716e-02,-1.035699917566637873e-01,-1.169493610447325249e-01,-1.283314659311323991e-01,-1.397547957084763759e-01,-1.496062707798123670e-01,-1.619099946409503221e-01,-1.703794610911233409e-01,-1.791092108289073781e-01,-1.851518238808861350e-01,-1.914583445556746477e-01,-1.991246823374470953e-01,-2.074203187280948268e-01,-2.158110354909526518e-01,-2.232109022127489739e-01,-2.295745656869199181e-01,-2.353417682624431295e-01,-2.405112922045730961e-01,-2.458475589314365328e-01,-2.502960918100410881e-01,-2.548869022907963022e-01,-2.585382792887124248e-01,-2.613550851907468497e-01,-2.643728403477206279e-01,-2.663970791856539178e-01,-2.693875949573134587e-01,-2.719597797751322488e-01,-2.749721755744257701e-01,-2.771628519353845910e-01,-2.792266455556040028e-01,-2.815686066680050947e-01,-2.834185034540861459e-01,-2.846121722310430702e-01,-2.861098138652227174e-01,-2.874758511513804127e-01,-2.884471953498620178e-01,-2.900051717581335620e-01,-2.909069096696112466e-01,-2.922740608650438165e-01,-2.934100326855041407e-01,-2.947805745035386171e-01,-2.965861427786655180e-01,-2.988499444232828872e-01,-3.008202327920419528e-01,-3.025752731880215207e-01,-3.047109321943749505e-01,-3.061253265840747084e-01,-3.071701690581855049e-01,-3.079620906254377788e-01,-3.086298669525345262e-01,-3.094797251736116084e-01,-3.102700282924908404e-01,-3.108868163868039325e-01,-3.117383935381161097e-01,-3.122100970365078165e-01,-3.126385030561118494e-01,-3.132948870869413649e-01,-3.144196211834224264e-01,-3.157171020570522790e-01,-3.165372620758812316e-01,-3.170887616420892674e-01,-3.180413612998183592e-01,-3.190960447090795404e-01,-3.195287908096985929e-01,-3.197664627488133737e-01,-3.197238850573353997e-01,-3.189376935272555391e-01,-3.180232595636175441e-01,-3.171331596247997098e-01,-3.158851295930404923e-01,-3.142854958120282483e-01,-3.128286990249637411e-01,-3.117589508251103481e-01,-3.107389812884292501e-01,-3.097378106379038987e-01,-3.091849933889275204e-01,-3.088326559934277959e-01,-3.088261118943763650e-01,-3.089937442238704923e-01,-3.092219969989331019e-01,-3.096664389394038763e-01,-3.101063874341291604e-01,-3.105006873874083251e-01,-3.109783200557644789e-01,-3.111316241333090260e-01,-3.112387564352402936e-01,-3.107397604633875265e-01,-3.112558637717561250e-01,-3.120861544640928797e-01,-3.128630446297072099e-01,-3.137097625337590956e-01,-3.141668023910828556e-01,-3.143225111531569027e-01
