-7.166360077221737993e-04,-1.974658666163122290e-03,-3.564775071641727335e-03,-5.309077249306705208e-03,-7.076597876217044676e-03,-8.743994221353731944e-03,-1.031329247216582895e-02,-1.179340499424351603e-02,-1.322764770737552831e-02,-1.456628911765504505e-02,-1.581693028931870776e-02,-1.707499426946786428e-02,-1.827294488925673005e-02,-1.932608944704923212e-02,-2.031163309648752538e-02,-2.131595077099171509e-02,-2.227205947618565718e-02,-2.317602278178585579e-02,-2.404149664146572676e-02,-2.486268703202803090e-02,-2.564871305151057365e-02,-2.639998364994601901e-02,-2.705927641797254216e-02,-2.768998620917667228e-02,-2.829600694492669447e-02,-2.887624459232900759e-02,-2.943685832909769678e-02,-2.997399054448305483e-02,-3.056341401753807224e-02,-3.122739495004392060e-02,-3.187421057081243209e-02,-3.250131610223232909e-02,-3.311411864934982185e-02,-3.370915754125224789e-02,-3.392993536398734161e-02,-3.422200936108014957e-02,-3.494024314624577521e-02,-3.552826684738392971e-02,-3.619594644264877148e-02,-3.691078244276133069e-02,-3.776403693871787509e-02,-3.855768533013084753e-02,-3.952712672300807972e-02,-4.042805070736990580e-02,-4.137657193459028798e-02,-4.224762099093083006e-02,-4.306165099406199931e-02,-4.378879512113154071e-02,-4.466364603464000049e-02,-4.544219849783658755e-02,-4.612160075540464726e-02,-4.669638709818982325e-02,-4.692565935792195747e-02,-4.704183861707694064e-02,-4.704132501175533471e-02,-4.691724525462531714e-02,-4.678366672907282448e-02,-4.651443615271107224e-02,-4.622173774198144042e-02,-4.565956032020372646e-02,-4.508276344015348797e-02,-4.445925010053850684e-02,-4.366273320656573198e-02,-4.282794695514354627e-02,-4.180670995414948604e-02,-4.059582719342702539e-02,-3.919808227503888964e-02,-3.761910307816969390e-02,-3.601131621519510634e-02,-3.424183216363836657e-02,-3.217856757069089552e-02,-2.997376929835641329e-02,-2.749412602086840490e-02,-2.488989146077986298e-02,-2.226477025039171401e-02,-1.929365283807844486e-02,-1.610398492025196665e-02,-1.270313335586374139e-02,-9.217205837425598500e-03,-5.772225033235848721e-03,-2.257887790142487985e-03,1.459332867850417215e-03,5.227109138965317300e-03,9.036126058097558242e-03,1.287643841388956024e-02,1.685728124199886019e-02,2.085014593582902587e-02,2.484709974896296206e-02,2.884214045059290549e-02,3.294994973189729198e-02,3.704725006164523438e-02,3.972601765081729824e-02,4.238352837719976812e-02,4.603617140270415548e-02,5.003537402314219007e-02,5.399500816401649889e-02
9.097245618435167991e-04,2.222919828294471056e-03,3.710906082853329593e-03,5.376466149049483577e-03,7.095353973013669192e-03,8.748156891339745056e-03,1.031066929828009307e-02,1.169913050961485582e-02,1.296466597218087595e-02,1.414160851957671841e-02,1.515179068842528731e-02,1.612317314253645939e-02,1.714202673732721435e-02,1.802085704657988355e-02,1.886830598280512736e-02,1.978688645913432437e-02,2.066635730532339829e-02,2.151789141566612037e-02,2.234157762771435754e-02,2.312449285557639442e-02,2.386872259399629506e-02,2.448096260041481009e-02,2.506346431919071263e-02,2.561788938888477987e-02,2.615062118198311497e-02,2.676609811462711888e-02,2.726843804232442769e-02,2.775362602954204588e-02,2.832401713450731842e-02,2.878463614826527045e-02,2.910944107629547667e-02,2.942648124642288296e-02,2.974012050340986077e-02,3.005158818203678209e-02,3.036287077884602947e-02,3.067486281690939842e-02,3.088890139830189133e-02,3.110329816496930355e-02,3.131628400608253704e-02,3.152809347629177000e-02,3.173895320075444115e-02,3.194739485997698247e-02,3.215416411029638211e-02,3.235979008929985162e-02,3.256340001456598660e-02,3.276578079972067292e-02,3.296730901857317791e-02,3.326647018892940622e-02,3.356527335913543630e-02,3.386347691598104448e-02,3.416097450745160524e-02,3.445801993383470346e-02,3.475388475353081291e-02,3.504851749772068537e-02,3.534206980850612689e-02,3.563391601396168062e-02,3.592417900851865853e-02,3.621298326742333068e-02,3.649993804890402233e-02,3.678524572485695338e-02,3.706881373520385520e-02,3.735039633529661784e-02,3.763020384299393950e-02,3.790802375807249963e-02,3.813450795003810179e-02,3.840841443793198418e-02,3.868025106815344699e-02,3.895006935451812008e-02,3.911950387948326391e-02,3.941009138727631644e-02,3.969879117224556914e-02,3.998570014790418098e-02,4.027070727428330721e-02,4.043081678963500458e-02,4.058922763173135329e-02,4.086907698836562269e-02,4.114737763218008493e-02,4.152264627554738685e-02,4.189636611127476457e-02,4.217016227097995090e-02,4.244253271562276747e-02,4.271355016499779611e-02,4.286016193194851914e-02,4.300550424282864603e-02,4.327286178395247512e-02,4.353914340804478783e-02,4.380455278400113145e-02,4.407119909732142710e-02,4.422010465454041805e-02,4.437901350857284544e-02,4.433232653168677623e-02,4.418530227752553996e-02,4.394358939820450227e-02,4.373452265920769327e-02,4.343698752203720842e-02,4.305222968227793989e-02
1.628253234840886833e-03,4.141844783601977137e-03,7.180257096221814156e-03,1.038421942686088527e-02,1.365414203510989521e-02,1.667293367707809240e-02,1.939679437877089851e-02,2.189403841398333481e-02,2.426757107530966642e-02,2.656579512183074310e-02,2.878863607150350043e-02,3.095876849505457828e-02,3.288302296822204207e-02,3.472712238555057673e-02,3.667871879968161164e-02,3.857664526031606006e-02,4.040734639707826287e-02,4.202637002552041257e-02,4.359393694819349574e-02,4.524838205850242184e-02,4.684246803750835575e-02,4.838315230786764676e-02,4.986933618793139983e-02,5.131417416285317251e-02,5.272485417646256139e-02,5.410321476637088012e-02,5.545441562988501910e-02,5.677257707537004122e-02,5.805436457639360365e-02,5.926602779109580582e-02,6.044061015527606162e-02,6.157739246993485654e-02,6.268925301459297994e-02,6.361221670368628900e-02,6.450817575749925870e-02,6.555007135280586927e-02,6.657445475189829875e-02,6.737492903693588497e-02,6.815892303656556628e-02,6.892385096436948189e-02,6.966793545496682838e-02,7.055703449621518464e-02,7.142709108004770269e-02,7.211775789162892802e-02,7.279623436444944418e-02,7.346048496354989910e-02,7.423414103195991043e-02,7.516186038837520400e-02,7.611825643183199597e-02,7.690026758905821325e-02,7.751104285717012876e-02,7.811008871933416975e-02,7.873814703324961972e-02,7.943900627699698735e-02,8.013023685259651474e-02,8.085342630852199175e-02,8.157035216800122279e-02,8.227975282095280340e-02,8.298253815808176448e-02,8.367987910318019917e-02,8.424806046879890209e-02,8.480983776438956456e-02,8.544751451496356009e-02,8.599699785319370182e-02,8.654077467220334940e-02,8.724269681821866795e-02,8.793906540410395545e-02,8.846851377397306482e-02,8.899454519119717744e-02,8.951594507443870474e-02,9.003337968485890241e-02,9.070985689152588627e-02,9.138192255644057849e-02,9.205032389273147542e-02,9.271549285956275088e-02,9.337672172358477130e-02,9.403495992882886234e-02,9.469055533422081339e-02,9.534282762729616445e-02,9.599262120122503683e-02,9.664010739461972865e-02,9.728455508525664375e-02,9.788602745952397488e-02,9.848526159022205628e-02,9.891921416540447320e-02,9.935099364756043439e-02,9.994320586389998651e-02,1.005329960262443950e-01,1.011209544216571665e-01,1.017071081145363848e-01,1.022911284954430566e-01,1.028735135056463162e-01,1.034541776490365828e-01,1.038703372435324790e-01,1.042849447764235410e-01,1.046979086341710830e-01
-3.691448353630769584e-04,-8.999568432979125534e-04,-1.494314627877935901e-03,-2.122673496163985599e-03,-2.764962169905140453e-03,-3.402132965645533573e-03,-3.989223206054513804e-03,-4.538864518739364924e-03,-5.065854359863988278e-03,-5.577549623525395600e-03,-6.076387700489238597e-03,-6.564636157360784555e-03,-7.039067204429141564e-03,-7.500562232604086714e-03,-7.951604142615578338e-03,-8.392195197686127747e-03,-8.818854616040179908e-03,-9.236621508263133384e-03,-9.645035812715169188e-03,-1.004030654773388140e-02,-1.042437514752755923e-02,-1.079941395185994753e-02,-1.116443751246701949e-02,-1.152071850027124381e-02,-1.187004808127691512e-02,-1.221213617831864821e-02,-1.254776837295296446e-02,-1.287596361278219893e-02,-1.323114447745188382e-02,-1.357965321852754384e-02,-1.392091887512429335e-02,-1.425506220131069444e-02,-1.458394301436402064e-02,-1.490742165413420049e-02,-1.519088265839814260e-02,-1.547003597271554703e-02,-1.574437888774705280e-02,-1.601361941527113322e-02,-1.627829932894937770e-02,-1.653817390499677867e-02,-1.679340034926479763e-02,-1.704471719266302879e-02,-1.729199802054839225e-02,-1.753565302507285872e-02,-1.777616758287444906e-02,-1.801315772340181254e-02,-1.824682947000978717e-02,-1.847745354833381370e-02,-1.870467700746654069e-02,-1.892877374416946160e-02,-1.915011257587203447e-02,-1.936853562626278044e-02,-1.958439920124850284e-02,-1.979795426686616414e-02,-2.000903618803798883e-02,-2.021787858543751606e-02,-2.042456350352003791e-02,-2.062892724282769374e-02,-2.083121881291838395e-02,-2.103152802574511857e-02,-2.122979064422607365e-02,-2.142629315476194882e-02,-2.162109771361794830e-02,-2.181414468462438902e-02,-2.200563735098110332e-02,-2.219556165900706327e-02,-2.238384948350415765e-02,-2.257067038210653839e-02,-2.275601138324154921e-02,-2.293986569909773482e-02,-2.312240844496797273e-02,-2.330363094479728434e-02,-2.348354657790739305e-02,-2.366228858923721118e-02,-2.383981803311291739e-02,-2.401614316501372165e-02,-2.422588395385937010e-02,-2.443448566594509652e-02,-2.464198045039826465e-02,-2.484846623706904456e-02,-2.505391811826263374e-02,-2.525837815253406671e-02,-2.546192002178014613e-02,-2.566451138367242812e-02,-2.586618749026735678e-02,-2.606699905449274754e-02,-2.626691634579515419e-02,-2.646598103872417271e-02,-2.666423713329996170e-02,-2.686166609418724760e-02,-2.705831312363441918e-02,-2.725421050129088127e-02,-2.744934056734840699e-02,-2.764374170202995792e-02,-2.783743288151642806e-02,-2.803039912059971869e-02
-7.792542877080806812e-03,-1.896045190195583263e-02,-3.145650489400404759e-02,-4.470019831065692034e-02,-5.820410816213198585e-02,-7.088086400837016743e-02,-8.251440459484886414e-02,-9.334376906451627431e-02,-1.036751669338612375e-01,-1.136778575006020808e-01,-1.234006761784968847e-01,-1.328882845561014381e-01,-1.420726330428091211e-01,-1.509923042086228906e-01,-1.597320023835014091e-01,-1.683028216219877027e-01,-1.765941646448117019e-01,-1.846780174259018414e-01,-1.925599514621853803e-01,-2.001752208365672192e-01,-2.075431395889714703e-01,-2.147104283664731939e-01,-2.216873806603909813e-01,-2.284930066782633329e-01,-2.353558613153151902e-01,-2.418100821698909164e-01,-2.481310993877162419e-01,-2.542977596983227451e-01,-2.603084681013416724e-01,-2.661799179973534102e-01,-2.719110782367131218e-01,-2.775022615581881347e-01,-2.829789597768905818e-01,-2.883446817783715810e-01,-2.935975279204344757e-01,-2.987537262973216090e-01,-3.038090004019962653e-01,-3.087645336985919697e-01,-3.136269891666169651e-01,-3.183966722266040050e-01,-3.230762367644650079e-01,-3.276757182018205650e-01,-3.321942740598228805e-01,-3.366370191225540043e-01,-3.410112583569728240e-01,-3.453149104425646820e-01,-3.495519970837885904e-01,-3.537269452464031350e-01,-3.578390497687557459e-01,-3.618913120741694689e-01,-3.658886001887133865e-01,-3.698303660264725679e-01,-3.737206535812626074e-01,-3.775626114755573082e-01,-3.812029425450192410e-01,-3.847982628102711300e-01,-3.885041005125422497e-01,-3.921672594019448566e-01,-3.957905173657910169e-01,-3.993758251993673181e-01,-4.029233957872303540e-01,-4.064360990897823434e-01,-4.099152809563961775e-01,-4.133615677108154474e-01,-4.167772094813969597e-01,-4.201633197151171117e-01,-4.235204952024266278e-01,-4.268511840768540733e-01,-4.301568058686144891e-01,-4.332853724722792177e-01,-4.363913505958136319e-01,-4.394759243848201935e-01,-4.425396152764629609e-01,-4.455852328308569366e-01,-4.486145417382862988e-01,-4.516306292512762832e-01,-4.546390506180825741e-01,-4.574415875327643155e-01,-4.602507457565946369e-01,-4.630748231099914847e-01,-4.659195477678172992e-01,-4.689951781585315338e-01,-4.718976550780774604e-01,-4.748352538993432237e-01,-4.778114851125491169e-01,-4.806249970276633698e-01,-4.834811627749954210e-01,-4.863820747273735479e-01,-4.893290453318801525e-01,-4.923241064327459338e-01,-4.953701126712343195e-01,-4.984735477195333386e-01,-5.016388592663573176e-01,-5.048726146420799976e-01,-5.081808641492683298e-01,-5.115696029951832813e-01
